function [y1] = myNeuralNetworkFunction(x1)
%MYNEURALNETWORKFUNCTION neural network simulation function.
%
% Auto-generated by MATLAB, 26-Apr-2023 15:19:06.
%
% [y1] = myNeuralNetworkFunction(x1) takes these arguments:
%   x = 5xQ matrix, input #1
% and returns:
%   y = 31xQ matrix, output #1
% where Q is the number of samples.

%#ok<*RPMT0>

% ===== NEURAL NETWORK CONSTANTS =====
x1=x1';
% Input 1
x1_step1.xoffset = [80091.82422;6681.887393;0.228065171;2937.731154;2500.628733];
x1_step1.gain = [1.98410910195003e-05;0.000552990326058848;17.883387366796;0.000472841727540661;0.00165775492432205];
x1_step1.ymin = -1;

% Layer 1
b1 = [3.2957066070273368652;1.7210748952481034202;-3.3583454054658781196;-0.76221997853977352388;-6.8724372238484816577;-4.3734006376216756351;8.9564076224528506032;8.6834423802873210718;-2.286531471866361187;-1.0756434548918116789;-1.3301833444887878333;-0.25672665145573342338;-0.98577357124721132209;0.59831737718872579634;5.2672110137894971871;2.1393658816867464623;-2.6609272767800824511;-0.7925990223181796912;-1.8817887090057818789;4.341638845413087644;1.101808024436299327;4.531405254292891982;-1.6024060433527758107;-4.3465596619469772932;1.6490950101680408313;-3.0269150971278975248;-1.2682036441185473574;-2.7835926889365474324;-0.034814166775154420375;2.5582508784203286112;0.049252574170772119022;0.26916647046959613077;1.4093461180940094479;-0.64250481359797495529;0.17712264906024111077;1.6266970457296727748;4.8733140444719875717;-0.89805577564163752147;-1.4892027270466086097;-0.97218777739359840684;-0.80273325419670216174;-1.2365591693106601223;1.5452516916508811651;-0.59538824181849703265;-0.17431532512914782451;1.9589857649384589955;-3.820342212160108275;0.7259667660154031088;1.067287253337879438;-0.37645698192062770904;1.8686108234735476774;-1.6877043994818969885;-2.1560772186608039291;-3.248017934476093771;2.7682331578356840218;-2.5629800400428002227;-7.4128367018955581003;-1.863871784961536715;2.1434834375277902474;-0.52372150520498605974;-1.8199500372214423294;2.7180385999439180544;2.2169128327833318437;-3.0934428902467612232];
IW1_1 = [1.2141557416004153946 0.63281369498196604617 -0.024033617012099047633 -3.9461876967828541929 -0.017604122898335884673;-1.7531242816790237882 -0.82588480602666114461 -0.062142117904995200495 1.0968672202456146714 -0.029016037535894271399;-0.3304810859062429218 -0.63501461617883270261 0.024246684280246295906 5.435418780889064827 0.018770792422512314751;-1.1056103337126224062 0.37537192530038143712 0.084154164320756300044 0.63135926479050585858 -0.039174095773937669951;0.8784963621656548538 0.46220465173952712812 0.014914999912628569903 -6.1276831338599375698 -0.01229272908112156483;0.34471728239898219437 0.20575083695843340847 -0.0064145436785963986723 -4.7497133187171431956 -0.0029939637908672858159;-1.3804639452460338855 -0.69231820148504263912 -0.022057974845550290532 9.0323496694676386198 0.0054936923593604004845;2.4066190007076846413 4.4032186660784153887 -0.59847232866013022612 -2.0296641916348052703 0.03373170201943032076;0.72480220142181672749 0.46378837817765489193 -0.023509457255377265439 -5.7297813699675597121 -0.012049651486886130136;-1.4717318753804555787 -0.91188595444178299765 0.020360234203041872869 5.9657696484201183651 0.013045314442140727371;1.5875011948233437309 0.63676730825841509898 0.09127408434426328987 1.3943844180654241249 0.039316484345435935566;3.3504555951937056157 1.2609592531273157157 0.22641447362536476495 7.3665789368392351477 0.011209527693191161102;0.66534151546924480414 0.0019169742950042767578 0.11643248862547697642 5.786571040382008313 0.039393580704224412381;-1.3199744788400937789 -0.59173366835035190459 -0.046696846890361638771 0.221556419748181882 -0.021397760309440769927;-1.8771404645204321504 -1.0264501023193195461 -0.011678803971115914867 8.6393481295888090443 0.011856374872826591638;-2.4402846316847850439 -1.1482424442973455658 -0.10053230884581727811 2.6242323896648414028 -0.061458074266997259061;1.5264175799894632579 0.80379566879627395437 0.025066279081680391955 -4.9347781031928281692 -0.0029359043728260075107;1.9507002877272334729 0.84468062654050879434 0.068196596357993313764 0.35556384414994990362 0.040273583957820893731;-0.23565380851972450582 -0.35787904360194333631 0.047770847331668683799 4.9667001331269649 0.010006051504031087881;-1.3576268376057887277 -0.68660766141836104826 -0.027233332087449439035 5.5408704616202166804 0.0042929158459010362953;0.6286756895458119887 0.11529474231667831419 0.062045534204499194764 6.8666383315617736116 0.014450027794237959092;4.20959902712616163 2.0298212074040877795 0.16854019232307801412 -1.1065098698676336664 0.0073302947215298291592;-2.5845981358104475056 -1.3371013490475889274 -0.070621846442298047419 3.4944668668946476942 -0.030271861768168890211;1.1477712907149160149 0.59129495259256059647 0.0067666727717349411941 -6.3248233868904195631 -0.010008164517175821215;-2.1051481979350343821 -1.1100638373891493771 -0.019669278245186709586 4.2416422524885071255 -0.019349006492604438334;-1.1248763701078741128 -0.093979214472515226753 0.025589632839561629596 1.7515967349518357654 0.019102678398688604372;-0.84337865949501100715 -0.38203978885276651534 -0.027245480073595396142 -0.40999506342357461275 -0.0071042292752926316721;1.8041355206911826592 0.89025903922613769392 0.067548799571624559834 -3.4489742496488235979 0.013939519715813067716;3.3059119524806681589 1.3264519941263592795 0.21199192074228795368 6.4251515384495290206 0.001500657503017065143;-0.01153922491738412423 0.50097491055310561237 -0.028194724957284263145 -3.7751368283704991313 -0.015342306503295814746;-0.15815572274244735218 -0.059006430878904371495 0.00071457541512138719741 -0.5662250720338907195 0.0010060405433501753286;1.9637164393580603949 0.97703216830295969153 0.051713858156533856758 -1.6061591757148203641 0.019175957264356151971;0.79954015016489077272 0.053425043594587211249 0.0050439927632568654428 -0.57398108744604514619 0.0066836559121386087193;-5.9780764437721591875 -2.3503619957075483349 -0.31621975347141584312 -5.18668881699832518 -0.095346456234321724788;-4.3968624701563463475 -1.7689213780068924198 -0.25509536525111414784 -7.8935186144852602652 -0.010414314614342059032;-0.6474452141701763086 -0.25176621656857939291 -0.043453315853244987854 -1.8198630839564646777 -0.0081762430648038252057;-0.66029163169731852623 -0.51630889942366053891 -0.46542154717489325755 1.4679992846158866904 -2.5231979178570513866;-4.0708299899634718955 -1.8142901817429326616 -0.14246409985301095036 -1.2876364376361504327 -0.046646878670391966892;1.9803157403085236421 1.0743656462541300023 0.014760621933379063087 -4.4886765737031630863 0.010521413013502754763;-1.3275752769205071413 -0.77411257200250838117 0.0023271713198983021327 4.4120360146932062761 0.0061552189936755138944;-3.1523987237842376885 -1.3893644932188256025 -0.10772521978244506413 -1.1683405316036750143 -0.030497379988002865092;-0.75032715032066643612 -0.4718698424438341199 0.0064425301524696733033 2.8411872477571744611 -3.7609869120598019129e-05;1.0742626663317820235 0.6749887559677565374 0.006557558263987643167 -2.8768040040907538746 0.0079447932166377844415;-1.0773797386138854737 -0.59563793533242781475 -0.0078553903529363297564 2.6420092748400838545 -0.002263295956160680817;0.85906057806368107954 0.53854312205201881891 -0.022190629700029142202 -4.7962815408693986186 -0.0067442833481060008444;1.5935909677391788541 0.53858738102693926031 0.10374624037691015932 8.6234249407998238013 0.01497262442754696693;0.050589047101942258289 0.078898397396187189279 -0.022592047120723345033 -4.5970439718627229553 -0.0028232971155639310402;-0.31286222055086765348 0.11310042292466616909 -0.09045069939941928483 -5.1847119456758381517 -0.029137762500758508655;2.0723793656321647383 1.1261172125475420458 0.055564424752451525846 -3.1046851023573025508 0.03038500138266355885;2.0240911884704426704 1.0191477549229099875 0.046841819421269970114 -2.3575420207803983175 0.022371200265377481214;1.807265651014070329 1.0339803324197471834 0.026173353695600476421 -3.5319273749604431778 0.0087646784945409582368;-7.522442256152814366 -2.8271764733666819858 -0.42634133862877787724 -8.272348875614747854 -0.066365227251215491711;-0.57821009226301212092 -0.30439886669612387093 0.016414776061809459307 2.3073035287337608779 0.011018607156531714381;1.1965234253955945309 0.6657870803007666094 0.0072920207880774025669 -5.5395416175585801 -0.0097005750895596126737;1.5697610879520658145 0.78803172238181484754 0.014687444203235146614 -1.8827596893398728106 -0.01158284843395112132;-2.5152932540405634754 -0.99546424032754732281 -0.053970918707318613072 1.9686714231274335951 -0.033795864433580680153;-3.5992823175171131389 -1.7323537150731240786 -0.64048609755367635898 2.224364934536512628 0.049156964915066596322;-2.9990952823440713004 -1.3931163543425451046 -0.084926607197284217921 0.74168822724456362483 -0.010873241464591624356;0.15497201656266074155 -0.069066907539164015817 0.068218748735329945432 6.016884396837022031 0.0067049005967091913558;0.5065948592896000191 0.45450652721788670219 -0.038314628928563951304 -6.9435564977168233725 -0.026794067631081292663;0.57969106995477970301 0.35041390666029476053 -0.010493696542759710713 -3.834836120802810111 -0.0093605255397498938336;2.5012372785232557248 0.92585743599716352481 0.16301477529690100443 10.148171076910413646 0.030452080969564438578;0.87569233527262047012 0.6818150871116439582 -0.021115562400421238748 -4.2833529641689063183 0.0085399637166481724704;0.68155027183578209549 0.14722643965088744178 0.041128062784904606541 2.3773919111298447149 0.0025647180148103613899];

% Layer 2
b2 = [-0.1861447226147736056;-0.18636967868087561673;-0.18687949013803034637;-0.19604713272683393921;-0.31675037967324987109;-0.3514715944751304888;-0.32463428909557778823;-0.20405505219380057347;-0.084111274802755195412;-0.19943026686830708782;0.16971854221048118805;-0.40651682783321729797;-0.077354577679615371677;-0.11741812474856280768;-0.42213771575966357874;-0.20482440372016563757;-3.4606969404077605468;-0.20650137967416759555;0.95909134046854493949;0.22924565222858570013;0.10826307388174591373;0.081549150062598954602;-0.71429683188757597812;1.3173655033569138251;0.2942086220961142029;-2.7087599783143718746;0.91116112436955387643;-0.7844512312123423925;0.56837767771839786679;0.70570366237554016386;-0.79037393123730026456];
LW2_1 = [0.059622387319899300406 0.0025285538096978862205 0.015368041704039353545 0.0071801351665753002443 -0.042440236546222913361 -0.030895669518521687996 0.021894266205328454661 -0.01961192824271518198 0.030463445553378376562 0.0066716627511996147437 -0.0086054498901900096375 -0.0022215911304682305939 -0.0017358161543003501094 0.027390502217102836308 0.036170700439191648401 -0.00053569037729102027354 -0.052937052473546984677 0.013580781183031957748 0.029613368882677272576 0.047730801704486090775 0.012477505003961450805 0.000137019266925835978 0.016041995015209729175 -0.018480422735953409147 -0.021507061517151860458 -0.040158980893057881489 -0.039285671424921536632 0.02111806759860503438 0.00088925457263613926547 -0.011381342938126629352 -0.81334454616196960597 -0.0063580595941401278279 0.29326660289104117263 0.00058718781174091935586 -0.0010535757589792136332 -0.054164615272687198499 -0.0084363551706298691574 -0.0050477775485525608334 -0.019476543541347163951 0.0015901118090729678654 0.0052599761931768438533 0.052214877984890981089 -0.08088800863759686155 -0.0013244517855053128483 -0.055748947475925868245 -0.0087646074853757558604 -0.031321307568663261933 -0.015340360135511621822 0.019673315626103676096 0.0096233605658569369018 0.039522452961331569488 -0.00022386895408898094826 0.19670590969324339148 0.14217995867164831547 -0.0071201775592918776711 0.0068224393622006909016 -0.0076927318914338229869 -0.00033935770242350416512 0.0084752314530111005908 0.0049392529779551238786 -0.20909403606025658839 0.0027148129508965429708 0.045506892009348889894 0.091166321902894850715;0.059609223613691343646 0.0028937129288748399993 0.015313554680617010723 0.0074580725151481112867 -0.042694196835336435669 -0.032238972419655648194 0.020873842283852542256 -0.019487930290208163586 0.03148995120406069409 0.006658251441767953395 -0.0086580197757752368898 -0.0020364357199740092987 -0.0017145253410109871899 0.027520009756416448365 0.037289889465169152871 -0.0008235290546815672531 -0.053610378322402146845 0.013481539226764018002 0.029358013604568734128 0.047972194958523686759 0.012316402184749010093 0.00026144933077674065722 0.015989988381389090566 -0.017639275113956270902 -0.021739047545765870922 -0.038904439171896856853 -0.037330921668122282742 0.021144706621457162732 0.00077389239465740385353 -0.011269128039779021874 -0.81865520682908010652 -0.0062838157165623961115 0.29536259560047933848 0.00058927711442407864056 -0.00095171103378548834589 -0.05319535485124268076 -0.0083467680804428755204 -0.0052635875535128719485 -0.019652387640986025003 0.001823284221108640614 0.0056471447332547778514 0.052822675816817141192 -0.081670517046374083159 -0.0020095214551065754792 -0.056096464414558941391 -0.0086969612577833515371 -0.03069076484337174629 -0.014862032913955084204 0.019573371784662892819 0.0097387961729270833278 0.039874700513500872801 -0.00022107866998132957035 0.19616649551342996149 0.14466664948457219619 -0.0070942418696069535489 0.006932093532091015628 -0.0080995217419165006084 -0.00045915173261818701799 0.0082061005983924510676 0.0053506913980402729183 -0.21142111985497802351 0.0027136523602519038202 0.045776651980941801545 0.091292844598192660066;0.05926166354030684702 0.0031992543636161648556 0.015201731234013306573 0.0076836707197564281524 -0.042919254557967925767 -0.033377583136755983872 0.0199874888555304428 -0.01904699108626452253 0.032290580291802206681 0.0066516492892742164894 -0.0087072549952298006898 -0.0019041589646610088214 -0.0017150935870262526937 0.027748848767605326093 0.038201456471877531795 -0.001063566644599095402 -0.054201668470500674601 0.013468146373713916 0.02909507732065192559 0.048239512843837761835 0.01217303539746099339 0.00042737371801198639027 0.015937498849284938846 -0.016887910000133999483 -0.021989524779910799013 -0.037658018008400080678 -0.035509472438902268954 0.021235679390232489044 0.00069785120077026996724 -0.011211792885171614764 -0.82321666243093427617 -0.0062217761145521056909 0.29708375067524905866 0.00059571821258240563544 -0.00086681744701128885661 -0.05244408389477869803 -0.0083043865574915394501 -0.0054472828377081792053 -0.019870579821371959356 0.0019712508095270264881 0.0059484881840250478438 0.053384561932483254321 -0.081996411757032358625 -0.0023787873060236437543 -0.056344085325823946298 -0.0086308200184968368596 -0.030187597155449056446 -0.014484877869837342948 0.019492437396378702041 0.009895307138763388688 0.040065609210072773705 -0.00021749797145948466821 0.19492330081636968786 0.14663314423466902725 -0.0070958450147703567429 0.0070287109945252317783 -0.0084631104548624266209 -0.000605804782972987595 0.0079819710987113871858 0.0056744569475091202401 -0.21319971197779033489 0.0027015276304646054437 0.045821796292659151828 0.091440104759515722366;0.050016916838174288462 0.0037561277139603410982 0.014332998063210167575 0.0077346338513485596647 -0.042360624518437868524 -0.03767156120813412723 0.018098324389145620944 -0.010475417538124767725 0.032909554435220242374 0.0069935759890580742951 -0.0090520151811937735881 -0.001756150629711948543 -0.0014108173405441332311 0.028980021989042654973 0.038511289020218129886 -0.0014781325871275363161 -0.054253285040951178264 0.014185615172579853563 0.028003906415771551153 0.047093670691797456795 0.011978880524960523746 0.0021730959176418651602 0.014926837044464133855 -0.016921728591291155391 -0.022558907858971789101 -0.031680107602666478239 -0.027799041591302080245 0.021426475974553937931 0.00041075374562012741033 -0.011376200475351603073 -0.83088000112936732933 -0.0053924691637838627692 0.29748637529545929326 0.0006316270271689259112 -0.00090363599316315400267 -0.053281753300578056642 -0.0084124447324295161671 -0.0054027122486083444669 -0.020588884889479158735 1.9620844744136246027e-05 0.0055449064531890327953 0.057077626867842318203 -0.078532916400869109963 0.0014797350414027699191 -0.055845202589627856993 -0.0084408867903926921433 -0.028637249615828804655 -0.013698027739384393761 0.018822741461817681791 0.010496064312600930646 0.038070656157827592603 -0.00011150697871041194843 0.17237144786477776037 0.14700942390338003762 -0.007548682870139916852 0.006869544490016217704 -0.0099825936664517684466 -0.0017636298851766345295 0.0077229274867589526796 0.0058801006685333572291 -0.21415754276508242038 0.0026167799965763800796 0.044830767505185276089 0.092104556643990337372;-0.095782671788428239146 0.0087095188933697317846 0.011174756145873805321 0.003123360871873280542 -0.033794967428027261613 -0.082304259678791638621 0.00096725025315269076969 0.089844787835474282378 0.032593261602140058408 0.016691638317720813162 -0.016439019147642324609 -0.00041121411699228849375 0.0036173611551407031627 0.043587020530877422508 0.03167977071166972608 -0.0054166395701593849851 -0.047275497143004177603 0.025989407889921462003 0.012407325362046188466 0.027554507099157340977 0.010423266684998384879 0.018382905683853895118 -0.00050880580125407446051 -0.026181626519618729498 -0.023449919518700703541 0.089667356476686235767 0.061478615939440282856 0.022026280154083543311 -0.0038353169926905400847 -0.0020144242888857303436 -0.90905571442204258226 0.0062635472031625887002 0.2664612509402976559 0.001588945317962372171 -0.0023921188664121567982 -0.078219373810329145824 -0.011797981316152275286 -0.0094798733694135255828 -0.024879660222493719252 -0.03910884228692586978 0.0056139567727966008248 0.11824854844700588563 -0.043315901225971502331 0.067242590466943349958 -0.04581015529705940309 -0.0063428547515462715967 -0.014953978865863049377 -0.0047087155451509526277 0.011803476838296109858 0.018774657573668914606 0.013696587344391096888 0.0012003885282505402481 -0.24031401512232897222 0.12889595844308640582 0.027672968754028342414 -0.0024443496171445305322 -0.0063059613203551388022 -0.016457846312955881629 0.0075087922110338772494 0.0049399059568213362151 -0.20621245657152220687 0.0012557216046914126181 0.029735156249114665095 0.10145910113663279828;0.27375463224489149372 0.0057325435104586932103 0.017954205478717399913 -0.035043858300355813784 -0.030448216463905768137 -0.11409247372119699082 -0.022291032136213535797 -0.048488889271773770451 0.033058683179611560166 -0.020526617823334144392 -0.02759261695047006413 0.010339647131366348776 -0.042464379333299981378 0.13392421536896920164 0.054867028607510491545 -0.0096889609629954090431 -0.054478647531139061388 0.055855517339930584042 0.038965021081233355837 -0.00053260077597279604535 0.011006708095033027051 -0.0040487446317723253808 -0.033338374063513163958 -0.051020446031819731425 -0.027476197989986492903 -0.026222108292519020339 0.054057072288485788492 0.032970636660491416114 -0.048090855621271667852 0.013866263074049882745 -1.2022366415216061419 -0.0073445836839416524591 0.1553728621735765425 -0.00056849353040556332203 -0.027970332211930182265 -0.011006863574024087354 -0.017561473102546510533 -0.06254450342530533391 -0.0063614419942368037944 0.16001297435436481753 0.071836600766964742171 -0.13892133286662819436 0.3058583961592006295 -0.23166007969540153288 -0.10688031675656303743 -0.0050140165827097012835 -0.036108428667000889989 -0.062742621276045212886 -0.047639233078344882244 0.014710613026812304968 -0.05651057225590888633 0.0032620373618023456447 0.35803831054543011625 0.21740946871361124804 0.056780488641331672284 0.038893943963188570834 -0.043414401657300025206 -0.011710389686805348572 0.013563646515996801226 0.014441239123772112163 -0.29438656031076565478 -0.00077496312768812975012 -0.041728680943061362274 0.098586321534072249295;-0.030144788090144560705 0.0024800749317890010727 -0.027733347895742790912 -0.0052952214879140304879 -0.10529023388942919393 0.19061862528353432089 0.12799969367432370571 -0.066471625160318709158 -0.02055276992477948067 -0.093697941926052630279 -0.0087144371839385590534 -0.013802332256216355913 0.059280254428760642549 -0.018689241285347518717 -0.029753373667164854238 0.0036771940443625929749 -0.12479856302173329696 0.0058763600161803875022 -0.074906773713119156888 0.21307617111237137086 -0.015847104676543776608 0.0095731553340430569632 0.018911920558782858992 0.039861505216361128867 -0.067815087824846909115 -0.24408988099626369173 -0.18026264046759157833 0.067886573695494736858 0.031852496795961804388 -0.027945622266797559563 -1.1989213139528323016 0.027791162910855482515 0.27600559821792958193 -0.0086851251445541621798 0.0085487422839030137445 -0.059295301858134641382 -0.021713615674106560849 -0.020497436483400636315 -0.097154734748078577788 0.012327440434165498964 0.036034851197026714076 0.097000078345676754576 -0.25430704039384777193 -0.10106056054453139981 0.31379320358347145836 0.0071846343415108262012 -0.09313581177747776163 0.054043358278052254506 -0.0023259811556347151536 0.026456860620783034799 0.037473048115811438685 0.0032750898392808545749 0.24221200891052779847 -0.091338631954723192852 -0.097632881304631616293 -0.02860998969138455264 -0.017503352056291946598 0.017394822046099558954 0.026043140150482774892 -0.095159989735394440169 0.099076447852608953704 -0.013484037238338126077 -0.049326862447142849621 0.060071363322873390367;-0.11831618398642411438 0.055681345816473055976 0.035991197527035702353 -0.0052776336409587889728 -0.064187865900883392389 -0.0014370330753106239433 0.056044632628751533954 0.022605882756755946855 -0.01174092222312583117 0.066680956852986750238 -0.021388004204185642743 0.0076135924595720641875 -0.026957433444950464757 -0.053859828282504670915 -0.0040608226702879852282 0.0067377565792310356585 0.17353093586527559844 0.011954129527506972969 0.031035544705981129437 0.13727397842877625544 -0.014580043301638360986 0.02032508728582150051 0.027236168842687483865 0.022726930523213013935 0.048837354261210184914 0.29950245276602771582 -0.0099232163393898065173 0.067205520828851283976 0.014155238173809222765 0.052607884056621562197 -1.1268660659298672666 -0.069463592735828111335 0.38345420308840716395 0.0017686174210556591946 0.018545092089518686734 -0.08961940223741630962 -0.019835323121634270555 -0.017756494757690137465 0.11899969992110695505 -0.14474535291042334162 0.024823211918963871553 0.15700104332907702243 0.15894122425712928215 0.35291259763525434368 -0.28017999488783129625 -0.010723349072775209545 -0.026876898551375476287 0.0012549182223192125677 0.10536439478962880689 0.018393372702868709262 -0.049539459065170141083 -0.0039998485952130744328 -0.54511449663172895086 -0.21276499292548650688 -0.088381400847343055682 0.025537384367189941425 0.078795220847560631938 -0.037053118101644237636 -0.013137512101990047111 0.079896113947695829305 0.30630683491917565231 0.021803220261336006547 -0.043291201009162560975 0.072556885430472659038;0.12090612107099012185 -0.052467162920746018839 0.00097306672047350179205 -0.0070853524486460851828 -0.11085226805745614087 0.10753295926661181336 0.047488779942476661011 -0.05437616341548941884 0.101009666100392137 0.10119697113321499127 0.019875446545359290451 -0.0076820025018059017938 0.043944401801937510443 0.11719762073592579488 -0.0081738803974069317027 -0.044963754575291982329 -0.23583204770246646298 0.02996929088592042642 -0.041660210997111153663 -0.11290828279581353877 0.016011186054086995467 -0.015910942207445225027 -0.014719508306434439526 0.20728281876245238657 -0.074130451305623859537 -0.28188883455873481321 -0.090648267321762440729 -0.017552275134063603096 -0.015686457694966546988 -0.06981366982612574601 -1.0090057285213400728 0.063692108590788928946 0.22694066644167296132 -0.0021248203850793875684 -0.013788772506675039953 0.064899710791856801695 0.0258841275475316622 -0.005531960289245252578 -0.13551691675605059828 -0.21987306275220619423 0.0019608382741743216049 -0.070698768330834882434 -0.16029391474177664967 -0.0097490467260931794324 -0.077150325183739182355 -0.00090873805465025423757 -0.093501444072633027593 0.049935162572378080648 -0.054876926802620747126 0.0091923191084568103837 0.058855315018802978333 0.0029558418472985818412 0.64450449158186884357 0.26214883451265369452 0.077209030827032745781 0.011097158585033241665 -0.076370131315400768823 0.013314269279613582392 -0.0012685049457918193706 -0.0047915327909231102479 -0.52273679825885255301 -0.0090630628019165888898 0.1633134111913958908 0.18663637679050229523;-0.096242130547462889645 -0.019532827533377410817 0.0051289049376009102077 0.002307114612346667596 -0.16816443237382000531 -0.3174636930153046932 -0.30548583718415706079 -0.01102195752487540592 -0.16975143125087704954 0.046915707780016448203 -0.014601748421244686166 0.0091650577213104756497 -0.011717160488745556948 -0.12293676060562652719 -0.11102291742650340078 0.04244559368376207148 0.15469264141103206134 -0.032499419911500758429 0.041808889885242034312 -0.17036832270331786487 0.0027715822796393115718 -0.015230546133491812411 0.018365319108100235101 -0.3474780980336195646 0.077160375716186641037 0.14320498124689057251 -0.20081875668638218824 -0.10275732109336731257 -0.0022830760090704286386 0.007492531314122380208 -0.81283150305585405437 -0.048569777442890434138 0.27085050564740154044 -0.0010919486449392356176 0.0010290195120672284042 -0.10969200000441881038 0.00010264516092081656595 0.012179648172850256194 0.067951943658303051721 0.011496885048783963071 -0.015889916444735509293 0.15021053017202776192 0.056447780984037264351 0.12689755568918514861 0.16217494948899632834 0.0098826116914481915848 0.19307004008490943892 -0.024535973922929617264 0.054684063674536334543 -0.0024755292101399407889 -0.011429548337671830913 0.0026467755811005826659 -0.34146721907648880379 -0.30205202329042879494 -0.070521130034986098667 -0.023534215924936770226 0.094371390825687268 0.017357311233714096954 -0.025586269569672803748 0.013315361941890931086 0.24307432433805203909 -0.00768683871360878717 -0.073599524456558373942 -0.02962205611551687115;0.071522956228192338668 0.030642183530030644295 -0.043114712565392926402 -0.0038287788507040160409 0.565319725445809107 0.1665027894387505758 0.38504123945924023653 -0.015196602759221475645 0.33092570713120117443 0.037433526014050422237 0.014181394580568830802 -0.014302602547493317373 -0.020527178655564241871 0.11248661112090369008 0.28699395370210045719 -0.059718887631511646807 -0.25118534391114100135 0.040822467102026298302 -0.037854001467854454799 0.31580359245516975708 0.023078820476039273862 0.022803329186859802591 -0.0026598731070650066984 0.15521499250709833162 -0.090457285057514449922 -0.054415745234036853872 0.051023965108095016563 0.063326250948092036031 0.0055636992036842075962 -0.039875560093469805678 -1.1552578621710956064 0.016921764721322063441 0.34626860598965841787 -0.00029438463006459611058 -0.00044923357194084245119 0.0065391987758145380186 -0.029364757550718455226 -0.033209438492376702756 -0.11075891711374941107 -0.14603092644597981398 0.038879013161983139168 -0.057867210353954250113 -0.098255381233684976894 0.12681657094433157473 -0.20609447821363796605 -0.027034837592045116855 -0.19862677840184966849 -0.049544878508724347899 0.0051181478724288704402 0.0305200311389896492 0.017374410636901871374 -0.0018358499073906945579 0.27628808107645208558 0.82535448856446680388 -0.0080046318906904188883 0.046826024507599421642 -0.062726127733523803776 -0.028232454304364527214 0.053047943629032374979 0.0091799568479456888914 -0.51622628059476272089 0.015506033790434721811 0.13415191416341731845 0.20237977223827952056;-0.029590984336627771528 -0.018388104868896380795 0.0036749796172148734875 0.015720769489394697399 -0.3911858651610826132 -0.094288071951802693293 -0.092134142074835084779 -0.028547929900626083793 -0.011544280144519931258 0.003338967773537676164 -0.037229522739190883118 0.0082457429045416641422 0.058157849064675866402 -0.0203553586022895798 0.032012471884967322322 0.014769270598844396955 -0.0086494652353303145415 0.00099166088963663443639 0.083848169001272815359 -0.045408429476557855831 0.037196086350906987228 -0.017018382157041281322 0.038215727573117412585 0.15951564971369189272 0.040373136764822410705 0.061156676217766173242 -0.15119251529191182759 -0.033267119322285522431 -0.021636949797294618286 -0.084929293392865590206 -0.91408239770635257848 -0.017975837467622719779 0.34245613342247238631 0.00076223011896594335037 -0.013916856290695592616 -0.13736149129458799512 0.014751228250948371368 -0.0020133359552892034217 0.01198325276977916902 -0.17319973207474045895 0.0058486952976809373009 0.097849005254272605758 -0.12702328290480996431 0.38416853250386689966 0.2578258696595409627 -0.013982015891683760231 0.044665291069937849977 0.061756569534172224556 0.086656323334960400073 0.028399685995863684085 0.071461204462113986358 0.00039031928974627333505 -0.078997743306365622584 0.033872585465790486237 -0.0096377196022016456411 -0.006252428404000349646 0.078669910485539798484 0.013587655233598922022 0.045315150465912612532 -0.023772864238671510828 -0.2825924992848218853 -0.0070744947676182230734 0.15392827976303993798 0.037649311444078306654;0.074117277258444927424 0.027117285552713473601 -0.11215170536080935892 -0.021964410339940836081 -0.049405774055240561649 -0.06889974321031117066 -0.10358551046084314706 -0.013862436111134156247 0.13254515974765415653 -0.11031801485383561923 0.0061832010444376039188 0.00264961200595193987 -0.088027078762132032752 0.0031261122878081808348 -0.10554618752995653663 0.049919104722323720535 0.17770411734577554186 0.027908907992790145391 0.13377237576217104742 -0.054739933798604034632 -0.074355051863239637888 0.021142484105086720159 0.0071224615062676754212 -0.19088605450853712853 -0.020295967250196934178 -0.17059993848856891407 -0.013626000495966994128 0.078215497091984137468 0.0090846878273649761537 0.053447675642516352668 -0.90615919652262677531 -0.015175333243845626902 0.16641163559938068617 0.004530998902164854597 0.010433493365614965667 -0.0023932540164312487638 -0.016351195521851821096 0.0034236730341537860434 0.037494211751284908796 0.40170572586118780123 -0.018574716094866668137 -0.45267726228611943062 -0.24326005917856693972 -0.40154176913254718828 -0.17085698618559505557 0.036637536388920095842 0.012243062983395409243 -0.11985266157035676104 -0.035429356596291913806 -0.048376850270061715065 0.025922243175665403425 -0.0010416208767168380622 0.28677396409898908702 -0.34416674505615335589 -0.071473379942912515506 0.0044486749426068186719 -0.12403375255189617865 -0.014807528271401092929 -0.055379834880394621099 -0.051964122000341138319 -0.19463228113300348743 -0.00055443602818547473542 -0.13542437394265141593 0.24331786934243745946;0.11443289379480836576 0.02929071356189952291 0.1469356654384038896 -0.0079495537687037480523 0.21546052013842728612 -0.026279598185218858847 0.069937051518345672019 0.012948559506944196801 -0.44976024566464511967 -0.052791249491796254922 0.0017170992452546186228 -0.019681124709412068513 -0.02020452167358813278 0.11017772025976688144 0.037820591238485162799 -0.028682678759100972699 -0.23268150659238345801 0.03183615842164865678 -0.025925295096577059828 0.27613727586397834868 0.019822397501285584503 0.0059648155380748963186 -0.0027943537336675415041 0.10347207348644255065 -0.10282819267696549637 -0.0885450934402063905 0.11798771544377499587 0.1434667385642542925 0.016318197535835628903 0.041571894627798526567 -0.89040455294370235428 0.022558623868206208185 0.29673566601715217761 -0.00044276625886802931662 -0.0014294222389936662911 -0.0057702177865633476686 -0.034843735923718602288 -0.014423196502833825899 -0.065907901777755323325 0.12364550187024182792 0.022397560243001241043 0.29904520275686941044 0.33481439902747428539 -0.32652068768463421433 -0.10863450787188201618 -0.02961115004511455373 -0.2408963807372468402 0.031048305022395569774 -0.052767081650216998701 0.0049402933065286870964 -0.065697923179027284402 -0.00065848494895201221781 0.38480214188323963453 0.2044383752663112841 0.1048625183654106896 0.031754004535277942367 -0.070301299033442246622 -0.0086153221792206625268 0.024428602230819961016 -0.10215736637770134188 0.53854577905025791118 0.0058592978062364511546 -0.055865913667109308449 0.11930387211252559132;-0.045728833309417807329 -0.069503418147903436863 0.13420721393161666457 0.0062976115429156567099 -0.22154840011371565445 0.077924833516722191717 0.17753753890161891316 0.0013949041173244897292 0.19671527960188994744 0.038306719469900565866 0.033782514666484415866 0.01951944988534078107 -0.11069884801521867601 -0.04901354314889782432 0.05270025538363690143 0.0018489296238975267642 0.024443078632060036282 -0.01421423677274404572 0.076863965607647674605 -0.23201938023674797962 0.015307412934122700474 -0.012138398142319557077 -0.0033461832904065269209 -0.20461054710029971671 0.006271001865425350312 0.10797572004349927088 -0.34150270493631046387 -0.17414805928599302876 -0.039521425459855569207 0.10712819089415816232 -0.9804727203884361364 -0.014067343791288943605 0.31722459139552838803 -0.0036856788211723856899 -0.019043341235656454508 0.031199876322438476611 0.027251371486818332102 -0.00076009174489930376312 -0.048225658451084334188 -0.043630617773458744979 -0.012823872071941798054 -0.3134978334422096613 -0.14323646628026268091 0.27870324878217628273 -0.070527970627985242524 0.008292588837027478621 0.19045287336504362896 -0.2086246314576840899 0.037112703581702530253 0.0066225679180010954897 -0.029320559107407818261 0.0046782910178940614529 -0.18519483943088468902 0.16697996543314874707 -0.10003881272161448124 -0.0071697372227029721944 0.14365875533980460022 0.019251762062804531062 -0.01068026444064243928 0.23672830626153529288 -0.47720400127255113709 -0.0067729500430664356381 0.036535893765336453776 0.089705474966500775569;0.010293726515725918139 0.038297057129609041182 -0.14804542042687338088 0.00408423722264430588 -0.016831849716914752679 -0.31065617977558129814 -0.23804328972347815752 -0.021936514437132761252 0.6300656616908101304 0.092366906530967643474 -0.046484714378290568904 -0.022254158451158186777 0.12631693512958877545 0.050166870738188512613 0.10257480703294608038 -0.0055428308359601859492 -0.05736130544119388136 0.032875147792817444037 -0.21883892669371513007 0.077024903670445371562 0.062788181528172282153 -7.3380393222209478713e-05 0.022468185254218828173 0.13223681645034174315 0.037622321804205827167 0.081948737931438864202 0.063084631235143795447 0.049549696444894555936 0.032785641897449945004 -0.17121319785489394483 -0.90112296515660661456 -0.028103474639757930476 0.36643381684448500524 0.0011904524258539393982 0.014032790554319234458 -0.20252796349624935246 -0.0078744159404515890605 -0.0030621170597792033395 0.085574898027297494063 -0.1767696326479416824 0.008572435477723424832 0.75708139753750791634 0.1672753545059968705 -0.15049928446526636416 -0.030146601440351354639 -0.03189647501743613639 0.0058560793041437554651 0.12158941967114997307 0.013851614995156613305 0.014080242686221679932 0.069611853649554217283 -0.00040303316538260882751 0.027326989048202351279 0.48134502059484041148 0.084996410708103722897 0.041380256552916244717 -0.084395035548924440816 -0.011956403563039640081 0.032043106499215504024 -0.0092235789757694735397 -1.195084950023751702 0.0093048309445309361487 0.072270622644522358735 0.0085602027668278679595;-0.037634318594409257863 0.017240573179840481405 0.0096023251341682564625 0.023400865819827261494 0.014181357478802485844 0.073965964881273632558 0.072355399144606286077 1.643083788476812801 -0.53946919802028003854 0.056847949077133586027 -0.023698032841581926494 0.0090113752640744084615 0.16845702385322183781 -0.035879112940339623339 -0.029505391662958058846 -0.023665536265671572452 -0.043690361629623745976 -0.023449382640196154287 0.099627891445861815889 0.094259021261512948575 0.00092424334758156882676 0.01752428987186961315 -0.0087379939506492983192 -0.025648365129413808888 -0.011939801289893792885 0.23435451442203708572 0.16295448377424637254 0.04735651896892415641 -0.05308161649587404135 -0.085472376930729981881 -0.91463546405512230475 0.0016721276275763401024 0.40441062896046769959 0.001560170662346208742 -0.037061587540877183322 -0.11570284774251068938 -0.02042389481096724968 -0.0066229198054978052901 -0.055502402814260040631 -0.19248493757590315334 0.020188663601728846358 0.40296413437791661627 0.11362536693928748655 0.16827968850128502409 0.034204122253772700768 -0.00014545663061690808295 -0.19592803068387470988 0.28398149877293304977 0.015426440486862902021 0.061639405326568114107 0.011978010965011234856 -0.0067113225530812297207 -0.20895032306716512793 -0.20396355016020786821 -0.0064388903494553735574 0.0027574598188015307827 -1.6830343968023735446 -0.030128939203324225926 0.034389124887424279975 -0.10747357063938157984 0.87976640395723471055 0.00019827462116351815677 0.14634833301185240506 -0.19123369047224827999;0.38575469126393191477 0.14672839652583402614 0.38300294109271537657 -0.045227352683716456894 -0.039816953362089499424 0.056249751940824169183 0.18397447537826808195 0.39180316308918949897 0.15499166110904305516 -0.091507399375384712581 -0.13499847026812711315 0.02996523241254512443 -0.66393274474461905221 -1.9244972883623627791 -0.032369211393483740546 0.19970843623385761689 -0.0378730529536129637 -0.74347396238205443186 0.55223938331597433038 0.09392940696038946935 -0.00065944813890499761732 0.37531769669445813609 -0.82365293184273502547 -0.029466241211053002119 -0.14666207725441793297 0.043651012018975324236 1.0905349063395739506 0.06881309914216922341 -0.38304676036897084002 0.54139790238466611871 -0.80503305422667936764 0.70024754193444371797 -0.37705827699999272529 0.069470513325450386488 -0.28671636328772542868 0.93439257927561170103 -0.056953843341741583473 -0.11953511607907885139 -0.11858930810155941804 0.28561616822532553961 0.31153904317179231809 -2.771272908931534662 2.7682430833888589383 0.56440289686342803854 0.19346430417609167263 0.037912602143421965384 0.13745244281826274335 -1.1406373082225103044 -1.1209113952953844162 -0.5803990474573864633 -2.0172700126396012621 -0.069152259630582954553 1.604012540649527141 -0.068629266409981223851 0.55508116155910802725 -0.093884350601765351185 -0.56408071254608949108 -0.14685203556282203086 0.05404043425783545268 0.022087285917158666626 -0.22540078778593095055 -0.017710532512534040567 -1.4548630193244853626 0.55280413387470961339;-0.85119896044165987981 -0.16070705876085011887 -0.47150134063390780614 0.10781020819455613968 0.082064686408390527528 -0.76399409383832561637 -0.37103319509799792542 0.12593003930280388669 0.027871820166332744728 1.2563792177850854337 -0.076769259701976094723 0.11234074178724556825 -0.092859928113599984889 0.55860109894277965026 0.062148259324368189394 -0.14203000291240625019 0.31631238298705105505 0.0046049550612225565241 -0.65632045211338052582 -0.46208313858477079172 0.074500054973319823626 -0.017559124079328171375 -0.49336995328953431317 -0.23335988099246141037 0.28789285299236994087 1.1013592574182375916 0.95733600725872158854 -0.15024276425335059137 -0.13003288016179531672 -0.35386598120806717072 -1.2864533393850781096 -0.7421552795489727572 1.1496591609301545223 0.11451356313444749357 -0.044498534452548012263 0.51684832828117588388 0.041677747796911704392 0.46227821696392545903 0.28968703347998836506 -2.5506083807613966208 -0.65050076373753240588 2.5473562533409057629 4.8037651544269923676 1.2415302042978069164 0.061335582587976597568 -0.041732586833288259909 0.10428858376468697067 -0.32543237175443945342 0.31914082043003344502 0.67123151091564681181 -1.3769777728299319453 -0.10725295156959241405 -1.5126270128884742316 0.24872632297052715833 -0.48730060589976753604 0.15855608099954554557 0.021530152575704428891 -0.23494587167595079591 -0.25091096499525661345 0.020122646955515757772 -0.68997335445555452171 0.10312398221977021884 -1.1059052307829113637 1.4461273026967449429;-0.78789979268671928025 -0.58425454266679122117 -0.28000875681747922075 -0.03083028898117994368 -0.046485596529203518368 1.2271236123383859606 0.42272786566734571467 -0.16369677708947211192 0.67761393940127401248 0.066413608675378557611 -0.051130888394756768278 -0.17973280761553442342 -0.36139464452515002169 1.6323002652881428709 -0.63831226842912003328 -0.29613963437905821419 -0.1353555576135962446 0.38637875257380394078 0.0070183815200191854503 0.24670940492295315161 0.3905938110210602221 -0.038285844664401276483 -0.30250999448694482208 0.3630139104231523417 0.92564101349021854492 -0.043043717304444478744 -0.96542415298862183093 -0.40178227909440017429 0.62312440077457464938 -0.2459478439224104529 -0.40550651185166053381 0.39022072059733736715 -0.33333423668456901856 -0.0031949611657147132873 0.34878825307536459599 -0.75675871457397336783 -0.03237694055246717606 -0.094489658767758499813 0.26663167116944214152 -1.4685576463284553128 -0.13592499713117206506 -2.4397570598382762874 0.9056067676119551324 4.6243519276695614906 2.3521665320784346243 -0.088430383112524754696 -0.70962791828627824753 -0.59208232753283562833 0.36591326647686828188 0.84784584108110438994 -1.0087307684382720296 -0.049440587920762793517 -1.9543613281856331287 -1.7558764967988711447 -0.86184033194061782091 -0.195171388796123918 0.55205530803000757434 0.3105578903895646059 0.62155567168215941631 -0.69733316826532310007 1.8359609369036815618 0.0040049191831511964795 -0.71280584234104060748 0.078515190760980582696;0.011577477946002659101 0.53336814519466324569 0.18117694167166809027 0.041440901038741095874 0.72532163212385369899 -3.9714270798822495223 -0.84716980700930366588 0.22659582120300786334 -1.1518213736034912387 -0.079245198103810143841 -0.35175526074577473379 -0.44154549885105026652 -0.16812384572337371602 -0.2442305869292127618 -2.1766965178672488257 -0.40316203234214398332 3.0437234050968697829 0.29574626039773765918 0.30150768928617660558 -2.4898803877506652249 0.038069747508864895669 0.13089006650130025067 -0.12139619980021418288 -1.6286289423403974563 1.4020388509589127857 0.29007121990706158376 1.0279630148626928143 -0.92083015447335947457 0.42694021223617728555 0.11041751800816561324 -0.19109554658624181012 -0.28200376151373313105 0.38067264895905750244 -0.0085805165870437259679 -0.035907698948954874796 -0.27046715245479241441 -0.24327535012096868083 -0.11850705408956156706 1.6034277231372213723 -0.12204572100910446308 0.20298853471376032687 -0.75814103435315316482 0.31666052693235408055 0.62836756315611985713 0.028191773672690590563 0.54196742779024098535 1.7397064216614210874 -0.34570722340260479077 0.085509103338922504145 -0.0068012408726090727365 -0.39570559135408145401 0.029944068500613235662 -0.040627222521679731693 -4.8906923551054273247 -0.10542131124574931345 0.012041730535004749325 -0.31201292295194388293 -0.10540967107547115356 0.31016786810678292907 0.095895175618471578671 2.4763980939423544392 -0.36054928387635126752 -0.058997305252572927736 -0.075864704868167737173;0.11476491098499688737 -0.3976424657156752418 -0.048512782240269974876 -0.039591004454511628807 0.94481632436872298175 -4.8189155932928473547 -0.055169261334394800733 -0.010277285220597608476 0.70123199347704245898 0.26655459942172204935 0.13412654000443921531 0.34553891049345897279 -0.10811280564934390436 0.18667512425544399712 -0.86588428425701302604 0.14375039277022524931 1.6248764431826794308 0.04347933641226355006 -0.12489059816996933572 -4.1362542842564264944 -0.66388086092578579844 0.11522754193071826911 0.054649840039734179364 -2.7435606643482386424 0.61013133949561826341 -0.21401918139146819398 -0.003020642323473095997 -0.71724957171362013764 -0.42096636345002114155 0.057747829869902067568 -0.38674831600934650444 -0.033703437014490307544 -0.12721017072794371661 0.0030279252755640870612 -0.1025595846151622359 0.16760846507020563112 0.14304152848438869694 -0.096118862054998435718 0.49926986839361975345 -0.46725556442207860641 0.12622583045288821024 -0.41757287006983873079 0.29307254554426448445 0.76176212370002127638 -0.00012839383339386631648 0.72737652459511126235 3.6498909563240102827 -0.1448814215199301092 0.23623457398495367743 0.01085757623488265225 -0.11360792884713964701 -0.0093666899519650858447 0.205241107892896818 -0.75893298647024598491 -0.21143380988241122775 0.083002514828374868161 0.014503504954143120811 -0.092987780610228415457 -0.1360489495471017829 -0.022624485791365240434 -2.2056486132393149369 -0.2714763613823784616 -0.30726614170936900061 0.12213995861081561323;0.076262789861012147963 -0.15878056613369403993 0.039860351549691128148 -0.032351332133604096541 -0.7854966387543034223 -0.76264779057049425504 -1.3958753704491151382 -0.071794452996852400894 0.33993488742457689256 0.11780636534693079975 0.1086061327658748854 0.10846680305905240238 -0.1251141235019729292 -0.11965008202067162202 0.058676534569945509867 0.12327720366336122892 -0.15201313760027157507 -0.098096525927323208194 -0.035859458783811158644 -0.73813883306476268942 -0.0041499328041705420625 -0.086607131304295092988 0.049974878304464127876 -0.47857891760079412924 -0.0094440465244046874205 -0.30069861347642928839 -0.69209372879862141037 -0.28407514956633322933 -0.052833538543254829345 0.091493223763247463753 0.19444251840736712089 -0.016803111081649731162 -0.2555534757972661164 -0.0045921006611093564964 0.049670755342952691014 -0.11357401924797771997 0.087401731925617592855 0.058681800442720727373 -0.092631191052420708276 -0.15113859885736202759 -0.087950243986463366719 -0.48670070712057877937 -0.28070563699297523819 0.31914131744702450844 0.45342416337022883877 -0.078898922636482765602 0.59675773583731772653 -0.11129935272363757071 0.073802054298717528757 -0.045918017376963680964 0.090019476619877331069 -0.010348122305691861977 0.11975036946421313555 0.51031709455398388542 -0.044963818952448462996 -0.0027240827988571480328 0.11267787145575489105 0.04568189895310859755 -0.026648235664020396979 -0.20655607254493887903 -0.7343438824202862536 0.040183199034400741978 -0.15320719478416430781 -0.16316291794007922733;0.025400776342766214627 0.037941274588531997969 -0.0026602008257293600392 -0.061599874952641638093 2.5690481191676335371 0.16348673477573374968 0.067261966200358527801 0.17663165030601019057 -0.34351893988476639441 0.058779882700955209118 -0.079309051005202468865 -0.19336840040849387345 0.24240845632989016512 -0.15649504490852070293 0.23995052626877624857 -0.12717071485972203382 0.080623262910180737428 -0.059630396640271726705 -0.073033047645361379163 0.62308582798349876342 0.18106510351006996351 0.0044455399579374898361 0.036978180465129947829 0.42159162121515891819 0.015536185300918809934 -0.12152978478928429251 0.41735033773208174424 -0.14310383553818858959 0.19718616299031935246 0.0027343872760648819074 -0.089275080251361854655 0.091004884671514532646 -0.46231719431070311677 0.0026778013347728687674 0.021280382115271126442 -0.075750819820948514516 -0.18987733415795943204 -0.096667634765066720592 0.011464897657776232723 0.21098411201779543322 0.12330641495716301859 0.0078581527145433639064 -0.49105538726228353807 -0.42788363059498429886 -0.18803666886333789132 -0.061442234492641745192 -0.69912196446837060471 0.28784380669983994361 -0.047462473380171309179 0.010850613481703460378 0.31507222408696877736 0.0082669091009256265995 0.17806761567574513894 -0.096774274206459218184 0.22588146676190395956 -0.17627662721067957619 -0.17372876258676892003 0.00830678208715413674 0.10495047308818369891 0.15178348961118928728 0.90247991314281061914 -0.010599115292547490672 -0.10971283745142181021 -0.31524828925652925715;-0.19937882084391253534 0.12042284043354611889 -0.13464750124490068584 0.19881983936204369878 1.8632034521929103921 0.058041562913250743794 1.1402097858397663988 0.23618121414435253036 0.772826220854069601 -0.40454831798432222545 0.027514861185829301432 0.094863472271503060385 -1.2796279825131287033 0.34433735025224526671 0.011306888348059495469 0.10512430969637809319 -0.28357260575376097567 0.22055236344179818264 0.97529709553016408208 1.544763109639989862 -0.77348971917802444853 0.043481389228219521903 -0.26395035457340826346 2.0219815485355887574 -0.023569500963419292433 0.35395031459330039691 1.0207221810877979973 1.0112733230706112408 -0.19112470105858780922 -0.074853923495283775091 -1.9398398021414415826 0.144011320958631589 1.1890518116520980563 0.069671137571791566523 -0.078566150022839092992 1.2010794216336677653 0.0210550086322481185 -0.40467793701589771516 0.20848607280044170742 0.63784177089966198615 0.50454526100625252116 -1.2334185482265338507 0.64299514330596896361 -0.39698454661312748692 0.44931344541186196695 0.42203923621954736456 -0.49924234474772732906 -1.4904197950069484335 -0.35092062803141305105 -0.054552596100492546649 -0.72508356578225285904 -0.015814637179421310587 0.80584393387468467029 -0.039098906772699809631 0.50907866643859356337 0.12394060407368825971 -0.80194749310467383641 -0.12083329326611988441 0.24250915054444879826 -0.6821442492845773975 -1.2682033530588325831 -0.16618922055919232994 0.26351697859717509997 1.1630649387346323476;-1.9853468836459822189 -0.35300368171254736804 -0.97847297497050078618 -0.1672982500513822135 -3.2252019273348575545 -0.041377316609020074745 -0.48531702966263090548 0.68807289515513803124 -0.30897151309033232813 -0.60813567197850515456 -0.75666747467128636639 -0.27903880907616507301 1.2626465092562138004 -1.9685305624194888718 -1.6686158203942569322 0.76205113275911451343 0.2434534351821781295 -0.60691302197870911073 -0.3520641573686300041 -1.570565605292888689 0.83077163132243414534 -0.2656968235599760364 -0.79066529346533320766 -1.381878452449118555 -0.38003217298443342509 0.93073448503238276341 0.22972314919895392427 0.45416182380696390464 0.54978568528360249879 -0.94564008405243127342 2.0521330119636798095 -0.14545425277245607742 -1.2293764576524557341 0.15849479988693618293 0.115180307834489154 -1.759529081618254498 -0.077425871021482323142 -0.16856316471468535401 -0.24568609265564297917 0.10580738706387399217 0.39430136941625582025 0.2215285585694121151 0.33218852397684373035 2.2614969649008034303 -0.53173443310292600739 -0.57302852886066546478 0.74632924789732368875 1.0723831617033108277 0.19532536794456248352 0.51931029728559763292 -0.82336544684749723988 -0.091763834507184213751 -2.2306419830878758681 -3.1447944343395022315 0.54588715365543560853 -1.183023223192385176 -0.087210366898152535953 -0.00037385511934701434484 0.073471322159088331416 0.64264821919475334511 1.1630696786662437781 0.17688390577202267595 0.17097972147249984598 -2.3438421999850409527;0.010365768464964545195 -0.59820282624904796975 -0.44585044679435298365 0.086739859316352835306 0.71440919911685685229 0.11159417313260411309 -0.54910944808272388329 0.6797107185133476337 -1.4735793913426029622 -0.43009341902565334514 -0.34796246168440414515 -0.086966904092350472144 0.1073031961677414492 1.1830662458553669047 -0.043412437217269415901 -0.35091463938673106426 0.10510013454310535019 0.54526739942893798219 0.061621818005801264062 1.2519976131258658825 -0.57264257562963949422 0.44576634942661269578 -0.52401817004133699474 -0.026168825557449461316 0.065690865064387149452 -0.77103545512184534783 1.522085367757074037 0.49560985343377633727 0.31196197091161931292 -0.00046933139353631488696 -1.3014719858830168242 0.41531909181663584363 0.26303896268764392907 0.094152863992067459264 0.12941744522511125504 0.16987211269672977676 -0.099602465164820533361 -1.0846925075132332061 -0.25191869874443523214 0.76380774771495452136 1.1441800472112746423 0.82518117640280985725 0.51348451238788184181 -1.0423068892689593135 -0.27813623499603618017 0.52656529643317129263 -0.047757609943200066138 0.24274407332972341989 -0.57580126094836947548 0.2545356982076767971 -0.52489430132175274313 -0.085227082343385565655 0.6954936859791009951 -0.45446202065965485284 -0.43030815947119077647 0.15114288810225567916 -0.57486864981783691864 -0.3826266111078875376 -0.3271879102282947982 -0.3945448403685012928 1.7094541624535328772 -0.3799084156447084526 0.21004827614963211824 0.84117696921828832846;-0.44285383024584779044 -0.80194326866815879296 -0.8888456723574306162 -0.14819149613063492543 1.9905287988604976057 -0.25992073787477970592 1.5290404184396622078 0.1542205381720989088 1.4782795114415738791 0.59924225186876334259 -0.03242006465258779474 0.21035594224276010777 0.44771571253270719959 -0.5917228904491532715 0.099503174016303444493 0.023418716181466740084 -0.43206586189888196436 -0.62003443214618303436 -0.30453957151457028418 -0.15090929348558099199 0.42294380275112264389 -0.62175169133410457256 0.13364305326741149349 0.40096586795633887279 0.11124599596362637344 0.21381502849024483504 -1.0541570663952004594 -0.66899111183924497848 0.10257586676118879421 -0.36525430920184809302 -1.3984045504252118342 0.19045891082358992752 -0.78991790967220354425 -0.044355784611044765664 0.19876104588325826938 0.44490943120169834657 0.060596391212982714247 -0.56009936152284178768 -0.38842696083304534271 -0.078081824260339161015 0.8343717700155554029 -1.1280491426158880675 0.31918139381701404744 0.36331439215790339858 0.027658882213721071308 -0.70971605598678744187 0.57576167778802711528 0.79013383305176165816 0.098066024401380069708 0.32622640003071134984 0.1418997975273164347 0.010885738119589835268 0.5332042342716807326 0.6084932594257635996 1.3173621677978186728 -0.52089544685752742215 -0.3138851268908188219 0.025311834438497608085 0.22392126984347340835 0.26424639016924844626 -1.6986450339056424763 0.3051093914566616605 -1.7017144893488944657 -0.60703875557846287414;-0.38433911076274707153 0.32901877453749911462 -0.057485310276300390087 -0.018537152049465602938 -0.86700047745148112188 -0.10573227812962890382 -0.51154149049911734615 0.29879287125210457488 0.24905348904073887351 -0.71363783154519844221 -0.87569815972434794649 -0.076772304412359507197 0.64498325949467105733 -1.4004171465636452432 -0.48585231396305988971 0.43802520817520929075 0.38686024430602428126 -0.50646647319046878 -0.50842297480261400278 -0.80202932099159818247 0.58852455406589021525 0.37350116955592854717 -0.41492249562301336541 -0.8920045311187194681 -0.50425671871322774731 -0.6309045595951959795 1.6346237529495983853 0.49959412161026822696 0.19165738738535123553 0.081498709619958878414 -1.8879955003991018003 0.017764117783162107489 -0.29694982616362608496 0.049970397431510119035 0.026979171677442924382 -1.6810345146785266035 -0.49131120140316109079 -0.93768228036509748691 -0.047874686045463694939 1.1893420249447976822 1.2212457750923610966 -0.70569368359911566202 -0.34429993323115593018 -0.57208868119229794313 -0.23140999206536533306 -0.55013879399683784932 -0.12227855914684963856 0.36491857250587989014 -0.30258558116196032639 -0.29715255506399390617 -0.43149624363780136882 -0.16053676098537192352 -1.0391017276970300198 -0.95329899779871984933 -0.68897813100406279929 -0.018348074687719297116 0.3013050645661695115 -0.24565180421746218853 0.227612217980457332 0.43141397743282006161 0.067125390243833321646 0.10035327210838951295 0.041943843444126556463 -0.99577977579775400763;0.16589438309129445059 0.020470803489409529485 0.30619823718859534578 -0.1657940730486061609 1.5259765068210138228 -0.25535480029662666057 0.47252922183268569745 0.21920452415940971935 -0.56371992198974163468 -0.066017049330126295614 -0.10356178997026509181 -0.011690688553798666074 -0.13420170280545004604 -0.34962892705731896115 -0.37953737105448287492 0.33281382674909737451 1.0965876894319244172 -0.31821754500250237774 0.64336628779920890242 -0.056820185429041394909 0.71309696591279336797 -0.47140531743519903385 0.019521008731169117723 0.46700050124435632526 0.64257379502207379041 -0.18497150599427611417 -0.92865073111395302075 0.29566975301134551524 0.0019220158446864301846 0.11524013988782878803 0.61153288223982948946 -0.12687895342714256008 -0.92995286375389973887 0.0043968100402753031858 -0.03480193034506538774 -0.21988144279357982325 -0.25781859778508625647 -0.23097737204917961895 0.95977934785251672878 0.45647200958070160981 0.23012963228197266807 -0.32139078576669150022 0.82677298407336941022 -2.1676338352141222288 -0.32202525336046639026 -1.0167355267937479013 -0.55722651332768324828 -0.21419787025557840421 -0.10967235737962527375 -0.52915218203912939288 -0.99015904476339533513 -0.033839561715802886355 0.43620794092749060056 -1.697556024090494553 0.58735733339620965765 -0.17304563848519016744 -0.47324590923472659165 0.12871299048822978928 0.016722927208031292123 -0.053741720407995879905 0.63511296462524469142 0.60860011988268936101 0.20248988330362349686 0.80976756747006972681;-0.25840908089294928329 0.070664737666915819481 -0.46967786382731130379 -0.24102296415568166821 -0.41854100323186677057 -0.77529660175009684764 -0.19643457159230945375 0.16020518977547471007 0.064171438956474480264 -0.65119626858013301973 -0.38749061951169078144 0.0023630741216145207013 0.3326577281606774017 -1.4301171315578948828 -1.0058195852415756644 0.23969063465626300191 0.38113515289463034685 -0.73690878276203852781 -0.017831739416711574198 -0.41362087390083285277 0.040166816105569047579 -0.082292603214303858272 0.24836748596137001033 -0.6085548195022209006 -0.15927344247314273451 -1.2323424528701907299 -0.11620980219985851956 0.31731777248308096206 0.30078761450316393589 -0.53347100263933933117 0.12026941944364782922 0.47972891200446793336 -1.9220447024881046616 -0.15796158904828272451 0.26572149047854165538 -0.87196337644903887387 -0.040966792005161130341 -0.58990966728241078787 0.064199379051407573504 0.79994020870433424353 0.92177549013390591703 -0.0095531108916118052943 -0.20770719503247381255 -0.23605674036734253241 0.0034236174016156650964 -0.13586798096130642266 0.72669436105644769075 0.24289797653224667884 0.1849400632933508315 -0.51980921702732008072 0.090875711138449888349 -0.00037713593576998739052 -0.040423630890551204287 -1.7726808535178628645 0.37180734252471969725 -0.22060986197404081066 0.27559649104042766021 -0.086249970579199405907 0.044240980940948783362 -0.11997552437350236798 0.24303013089892611109 0.092823518190598627853 0.14845588451937469232 -1.1476347766588821386];

% Output 1
y1_step1.ymin = -1;
y1_step1.gain = [0.000220000009667969;0.000198883088887437;0.000180429162391973;0.000164309926389474;0.000152251051874119;0.000164380839262107;0.00018127453523838;0.000143596711999896;0.000141732555926573;0.000113697482089316;0.000131496466385606;0.000113070065953306;0.000112214529633731;0.000103154076933197;0.000104021058982124;9.3107338303968e-05;8.32772526639165e-05;5.21656461828464e-05;5.48862677405606e-05;5.99236138325883e-05;6.2491029775306e-05;7.35541862516301e-05;7.80741303121638e-05;0.000123836800386927;0.000359308653056147;0.000573147093178031;0.000595806842069186;0.000707766056362436;0.000707144182637423;0.000724656959474475;0.00069028883599371];
y1_step1.xoffset = [6729.77197265625;7444.6943359375;8206.9013671875;9017.6796875;9878.1552734375;10788.9365234375;11743.1904296875;11861.5107421875;10944.447265625;10999.84765625;12893.6650390625;13648.1123046875;13700.2421875;15155.07421875;16105.2099609375;16144.279296875;14960.197265625;645.916076660156;625.407470703125;503.406280517578;267.832366943359;43.022819519043;-173.367340087891;-241.856430053711;-47.1097640991211;1065.66528320312;1167.54284667969;1123.31567382812;923.125061035156;939.269226074219;862.716064453125];

% ===== SIMULATION ========

% Dimensions
Q = size(x1,2); % samples

% Input 1
xp1 = mapminmax_apply(x1,x1_step1);

% Layer 1
a1 = tansig_apply(repmat(b1,1,Q) + IW1_1*xp1);

% Layer 2
a2 = repmat(b2,1,Q) + LW2_1*a1;

% Output 1
y1 = mapminmax_reverse(a2,y1_step1);
y1=y1';
end

% ===== MODULE FUNCTIONS ========

% Map Minimum and Maximum Input Processing Function
function y = mapminmax_apply(x,settings)
y = bsxfun(@minus,x,settings.xoffset);
y = bsxfun(@times,y,settings.gain);
y = bsxfun(@plus,y,settings.ymin);
end

% Sigmoid Symmetric Transfer Function
function a = tansig_apply(n,~)
a = 2 ./ (1 + exp(-2*n)) - 1;
end

% Map Minimum and Maximum Output Reverse-Processing Function
function x = mapminmax_reverse(y,settings)
x = bsxfun(@minus,y,settings.ymin);
x = bsxfun(@rdivide,x,settings.gain);
x = bsxfun(@plus,x,settings.xoffset);
end
